digraph Tree {
node [shape=box, style="filled, rounded", color="black", fontname=helvetica] ;
edge [fontname=helvetica] ;
0 [label="Sex <= 0.5\nentropy = 0.874\nsamples = 146\nvalue = [43, 103]\nclass = 1", fillcolor="#8cc6f0"] ;
1 [label="Fare <= 10.481\nentropy = 0.41\nsamples = 73\nvalue = [6, 67]\nclass = 1", fillcolor="#4ba6e7"] ;
0 -> 1 [labeldistance=2.5, labelangle=45, headlabel="True"] ;
2 [label="entropy = 0.0\nsamples = 2\nvalue = [2, 0]\nclass = 0", fillcolor="#e58139"] ;
1 -> 2 ;
3 [label="Age <= 3.0\nentropy = 0.313\nsamples = 71\nvalue = [4, 67]\nclass = 1", fillcolor="#45a3e7"] ;
1 -> 3 ;
4 [label="entropy = 0.0\nsamples = 1\nvalue = [1, 0]\nclass = 0", fillcolor="#e58139"] ;
3 -> 4 ;
5 [label="Age <= 49.5\nentropy = 0.255\nsamples = 70\nvalue = [3, 67]\nclass = 1", fillcolor="#42a1e6"] ;
3 -> 5 ;
6 [label="Fare <= 143.592\nentropy = 0.126\nsamples = 58\nvalue = [1, 57]\nclass = 1", fillcolor="#3c9fe5"] ;
5 -> 6 ;
7 [label="entropy = 0.0\nsamples = 47\nvalue = [0, 47]\nclass = 1", fillcolor="#399de5"] ;
6 -> 7 ;
8 [label="Fare <= 158.208\nentropy = 0.439\nsamples = 11\nvalue = [1, 10]\nclass = 1", fillcolor="#4da7e8"] ;
6 -> 8 ;
9 [label="entropy = 0.0\nsamples = 1\nvalue = [1, 0]\nclass = 0", fillcolor="#e58139"] ;
8 -> 9 ;
10 [label="entropy = 0.0\nsamples = 10\nvalue = [0, 10]\nclass = 1", fillcolor="#399de5"] ;
8 -> 10 ;
11 [label="Fare <= 51.981\nentropy = 0.65\nsamples = 12\nvalue = [2, 10]\nclass = 1", fillcolor="#61b1ea"] ;
5 -> 11 ;
12 [label="Age <= 57.5\nentropy = 0.918\nsamples = 3\nvalue = [2, 1]\nclass = 0", fillcolor="#f2c09c"] ;
11 -> 12 ;
13 [label="entropy = 0.0\nsamples = 2\nvalue = [2, 0]\nclass = 0", fillcolor="#e58139"] ;
12 -> 13 ;
14 [label="entropy = 0.0\nsamples = 1\nvalue = [0, 1]\nclass = 1", fillcolor="#399de5"] ;
12 -> 14 ;
15 [label="entropy = 0.0\nsamples = 9\nvalue = [0, 9]\nclass = 1", fillcolor="#399de5"] ;
11 -> 15 ;
16 [label="Age <= 17.5\nentropy = 1.0\nsamples = 73\nvalue = [37, 36]\nclass = 0", fillcolor="#fefcfa"] ;
0 -> 16 [labeldistance=2.5, labelangle=-45, headlabel="False"] ;
17 [label="entropy = 0.0\nsamples = 6\nvalue = [0, 6]\nclass = 1", fillcolor="#399de5"] ;
16 -> 17 ;
18 [label="Fare <= 10.325\nentropy = 0.992\nsamples = 67\nvalue = [37, 30]\nclass = 0", fillcolor="#fae7da"] ;
16 -> 18 ;
19 [label="entropy = 0.0\nsamples = 4\nvalue = [4, 0]\nclass = 0", fillcolor="#e58139"] ;
18 -> 19 ;
20 [label="Age <= 43.0\nentropy = 0.998\nsamples = 63\nvalue = [33, 30]\nclass = 0", fillcolor="#fdf4ed"] ;
18 -> 20 ;
21 [label="Age <= 21.0\nentropy = 0.96\nsamples = 34\nvalue = [13, 21]\nclass = 1", fillcolor="#b4daf5"] ;
20 -> 21 ;
22 [label="entropy = 0.0\nsamples = 3\nvalue = [3, 0]\nclass = 0", fillcolor="#e58139"] ;
21 -> 22 ;
23 [label="Age <= 39.0\nentropy = 0.907\nsamples = 31\nvalue = [10, 21]\nclass = 1", fillcolor="#97ccf1"] ;
21 -> 23 ;
24 [label="Age <= 36.25\nentropy = 0.94\nsamples = 28\nvalue = [10, 18]\nclass = 1", fillcolor="#a7d3f3"] ;
23 -> 24 ;
25 [label="Fare <= 28.275\nentropy = 0.845\nsamples = 22\nvalue = [6, 16]\nclass = 1", fillcolor="#83c2ef"] ;
24 -> 25 ;
26 [label="entropy = 0.0\nsamples = 5\nvalue = [0, 5]\nclass = 1", fillcolor="#399de5"] ;
25 -> 26 ;
27 [label="Fare <= 85.14\nentropy = 0.937\nsamples = 17\nvalue = [6, 11]\nclass = 1", fillcolor="#a5d2f3"] ;
25 -> 27 ;
28 [label="Age <= 28.5\nentropy = 0.996\nsamples = 13\nvalue = [6, 7]\nclass = 1", fillcolor="#e3f1fb"] ;
27 -> 28 ;
29 [label="Fare <= 77.965\nentropy = 0.65\nsamples = 6\nvalue = [1, 5]\nclass = 1", fillcolor="#61b1ea"] ;
28 -> 29 ;
30 [label="entropy = 0.0\nsamples = 5\nvalue = [0, 5]\nclass = 1", fillcolor="#399de5"] ;
29 -> 30 ;
31 [label="entropy = 0.0\nsamples = 1\nvalue = [1, 0]\nclass = 0", fillcolor="#e58139"] ;
29 -> 31 ;
32 [label="Age <= 34.0\nentropy = 0.863\nsamples = 7\nvalue = [5, 2]\nclass = 0", fillcolor="#efb388"] ;
28 -> 32 ;
33 [label="Fare <= 54.5\nentropy = 0.971\nsamples = 5\nvalue = [3, 2]\nclass = 0", fillcolor="#f6d5bd"] ;
32 -> 33 ;
34 [label="Embarked <= 1.0\nentropy = 0.811\nsamples = 4\nvalue = [3, 1]\nclass = 0", fillcolor="#eeab7b"] ;
33 -> 34 ;
35 [label="entropy = 0.0\nsamples = 1\nvalue = [0, 1]\nclass = 1", fillcolor="#399de5"] ;
34 -> 35 ;
36 [label="entropy = 0.0\nsamples = 3\nvalue = [3, 0]\nclass = 0", fillcolor="#e58139"] ;
34 -> 36 ;
37 [label="entropy = 0.0\nsamples = 1\nvalue = [0, 1]\nclass = 1", fillcolor="#399de5"] ;
33 -> 37 ;
38 [label="entropy = 0.0\nsamples = 2\nvalue = [2, 0]\nclass = 0", fillcolor="#e58139"] ;
32 -> 38 ;
39 [label="entropy = 0.0\nsamples = 4\nvalue = [0, 4]\nclass = 1", fillcolor="#399de5"] ;
27 -> 39 ;
40 [label="SibSp <= 0.5\nentropy = 0.918\nsamples = 6\nvalue = [4, 2]\nclass = 0", fillcolor="#f2c09c"] ;
24 -> 40 ;
41 [label="entropy = 0.0\nsamples = 3\nvalue = [3, 0]\nclass = 0", fillcolor="#e58139"] ;
40 -> 41 ;
42 [label="Parch <= 0.5\nentropy = 0.918\nsamples = 3\nvalue = [1, 2]\nclass = 1", fillcolor="#9ccef2"] ;
40 -> 42 ;
43 [label="Fare <= 71.55\nentropy = 1.0\nsamples = 2\nvalue = [1, 1]\nclass = 0", fillcolor="#ffffff"] ;
42 -> 43 ;
44 [label="entropy = 0.0\nsamples = 1\nvalue = [1, 0]\nclass = 0", fillcolor="#e58139"] ;
43 -> 44 ;
45 [label="entropy = 0.0\nsamples = 1\nvalue = [0, 1]\nclass = 1", fillcolor="#399de5"] ;
43 -> 45 ;
46 [label="entropy = 0.0\nsamples = 1\nvalue = [0, 1]\nclass = 1", fillcolor="#399de5"] ;
42 -> 46 ;
47 [label="entropy = 0.0\nsamples = 3\nvalue = [0, 3]\nclass = 1", fillcolor="#399de5"] ;
23 -> 47 ;
48 [label="Age <= 47.5\nentropy = 0.894\nsamples = 29\nvalue = [20, 9]\nclass = 0", fillcolor="#f1ba92"] ;
20 -> 48 ;
49 [label="entropy = 0.0\nsamples = 8\nvalue = [8, 0]\nclass = 0", fillcolor="#e58139"] ;
48 -> 49 ;
50 [label="Age <= 51.5\nentropy = 0.985\nsamples = 21\nvalue = [12, 9]\nclass = 0", fillcolor="#f8e0ce"] ;
48 -> 50 ;
51 [label="Parch <= 0.5\nentropy = 0.65\nsamples = 6\nvalue = [1, 5]\nclass = 1", fillcolor="#61b1ea"] ;
50 -> 51 ;
52 [label="entropy = 0.0\nsamples = 5\nvalue = [0, 5]\nclass = 1", fillcolor="#399de5"] ;
51 -> 52 ;
53 [label="entropy = 0.0\nsamples = 1\nvalue = [1, 0]\nclass = 0", fillcolor="#e58139"] ;
51 -> 53 ;
54 [label="Age <= 75.5\nentropy = 0.837\nsamples = 15\nvalue = [11, 4]\nclass = 0", fillcolor="#eeaf81"] ;
50 -> 54 ;
55 [label="Age <= 60.5\nentropy = 0.75\nsamples = 14\nvalue = [11, 3]\nclass = 0", fillcolor="#eca36f"] ;
54 -> 55 ;
56 [label="Fare <= 79.425\nentropy = 0.954\nsamples = 8\nvalue = [5, 3]\nclass = 0", fillcolor="#f5cdb0"] ;
55 -> 56 ;
57 [label="Age <= 55.5\nentropy = 1.0\nsamples = 6\nvalue = [3, 3]\nclass = 0", fillcolor="#ffffff"] ;
56 -> 57 ;
58 [label="Age <= 53.0\nentropy = 0.811\nsamples = 4\nvalue = [3, 1]\nclass = 0", fillcolor="#eeab7b"] ;
57 -> 58 ;
59 [label="entropy = 0.0\nsamples = 1\nvalue = [0, 1]\nclass = 1", fillcolor="#399de5"] ;
58 -> 59 ;
60 [label="entropy = 0.0\nsamples = 3\nvalue = [3, 0]\nclass = 0", fillcolor="#e58139"] ;
58 -> 60 ;
61 [label="entropy = 0.0\nsamples = 2\nvalue = [0, 2]\nclass = 1", fillcolor="#399de5"] ;
57 -> 61 ;
62 [label="entropy = 0.0\nsamples = 2\nvalue = [2, 0]\nclass = 0", fillcolor="#e58139"] ;
56 -> 62 ;
63 [label="entropy = 0.0\nsamples = 6\nvalue = [6, 0]\nclass = 0", fillcolor="#e58139"] ;
55 -> 63 ;
64 [label="entropy = 0.0\nsamples = 1\nvalue = [0, 1]\nclass = 1", fillcolor="#399de5"] ;
54 -> 64 ;
}